short group_0_biases[]={214,
238,
234,
236,
235,
-4,
235,
-155,
237,
233,
-238,
-240,
228,
-225,
-95,
232};

short group_0_weights[]={172,
-266,
-280,
232,
-114,
-203,
193,
95,
315,
0,
0,
0,
78,
-351,
-26,
284,
-230,
-217,
256,
111,
318,
0,
0,
0,
-391,
-441,
-196,
-66,
-330,
188,
205,
226,
-402,
0,
0,
0,
48,
17,
-133,
-192,
-140,
-176,
21,
222,
-243,
0,
0,
0,
-81,
30,
80,
179,
27,
-24,
-22,
40,
-153,
0,
0,
0,
-241,
-176,
127,
-100,
75,
-40,
-82,
-57,
95,
0,
0,
0,
89,
-268,
-59,
21,
15,
16,
-97,
-187,
-153,
0,
0,
0,
-340,
-38,
-222,
294,
-325,
29,
-82,
237,
-216,
0,
0,
0,
-187,
196,
-106,
124,
231,
-225,
201,
283,
-92,
0,
0,
0,
228,
-563,
-561,
-7,
295,
462,
654,
-496,
-558,
0,
0,
0,
-3,
277,
349,
-510,
567,
-506,
318,
-292,
-313,
0,
0,
0,
-511,
219,
196,
-485,
187,
307,
539,
-443,
-233,
0,
0,
0,
127,
195,
-91,
188,
8,
84,
-405,
-404,
-234,
0,
0,
0,
0,
-193,
-151,
-435,
211,
-364,
54,
-362,
162,
0,
0,
0,
268,
-3,
-109,
365,
-205,
149,
377,
-193,
103,
0,
0,
0,
655,
-195,
662,
-576,
950,
-234,
-855,
-953,
-615,
0,
0,
0,
188,
154,
807,
43,
-493,
691,
-846,
277,
-824,
0,
0,
0,
976,
-183,
-209,
765,
-88,
458,
-370,
566,
-683,
0,
0,
0,
-376,
-363,
-385,
452,
217,
448,
143,
-441,
77,
0,
0,
0,
-341,
458,
-147,
117,
348,
-167,
-65,
111,
-338,
0,
0,
0,
315,
1,
79,
297,
-381,
-257,
-348,
-287,
-68,
0,
0,
0,
471,
-335,
519,
-210,
-957,
-1068,
-154,
-561,
-810,
0,
0,
0,
698,
-710,
474,
-340,
182,
920,
-930,
946,
694,
0,
0,
0,
-198,
824,
462,
572,
524,
254,
-52,
-686,
210,
0,
0,
0,
-55,
197,
-302,
41,
247,
347,
-307,
174,
-78,
0,
0,
0,
-288,
-15,
-108,
25,
-157,
294,
10,
68,
157,
0,
0,
0,
-252,
167,
118,
108,
-300,
-354,
-300,
-170,
-198,
0,
0,
0,
439,
75,
-270,
-462,
-343,
-285,
-80,
2,
221,
0,
0,
0,
445,
-353,
187,
390,
-416,
-392,
-464,
387,
-371,
0,
0,
0,
-253,
128,
237,
-285,
494,
-27,
483,
-409,
81,
0,
0,
0,
-18,
-128,
-76,
-202,
284,
259,
302,
-274,
224,
0,
0,
0,
-215,
137,
335,
21,
-184,
-47,
-20,
-55,
234,
0,
0,
0,
263,
-286,
-19,
-197,
10,
194,
233,
-169,
299,
0,
0,
0,
-245,
82,
-252,
-55,
283,
27,
-289,
302,
332,
0,
0,
0,
-92,
-126,
294,
290,
79,
71,
173,
-68,
-198,
0,
0,
0,
126,
90,
130,
-316,
-26,
67,
100,
230,
-98,
0,
0,
0,
391,
-431,
357,
-475,
-317,
-461,
324,
-520,
149,
0,
0,
0,
-263,
238,
306,
-67,
402,
-216,
-146,
-29,
118,
0,
0,
0,
-284,
130,
75,
-250,
-267,
134,
391,
-414,
276,
0,
0,
0,
515,
-157,
-24,
-398,
594,
-489,
-643,
-74,
21,
0,
0,
0,
-141,
-746,
800,
398,
54,
472,
250,
252,
-416,
0,
0,
0,
740,
-29,
-279,
494,
807,
-684,
-33,
37,
-450,
0,
0,
0,
-1356,
1887,
166,
-187,
-732,
-3848,
-89,
-2625,
3920,
0,
0,
0,
-3394,
2525,
1489,
3395,
3542,
-1208,
2525,
-3753,
2770,
0,
0,
0,
-2784,
3564,
-2133,
3858,
-2248,
-2183,
-744,
303,
-2379,
0,
0,
0,
-448,
468,
257,
-24,
-174,
231,
-18,
245,
-56,
0,
0,
0,
374,
95,
-437,
489,
-4,
-329,
-15,
-110,
-405,
0,
0,
0,
327,
25,
-344,
-255,
-303,
136,
-292,
-168,
-174,
0,
0,
0};

